<?xml version="1.0" encoding="UTF-8"?>
<smile version="1.0" id="DAG" numsamples="10000" discsamples="10000">
	<nodes>
		<cpt id="LatentVar">
			<state id="x0" />
			<state id="x1" />
			<state id="x2" />
			<probabilities>0.5374299626423429 0.2020618231577897 0.2605082141998675</probabilities>
		</cpt>
		<cpt id="motor_fluctuations">
			<state id="x0" />
			<state id="x1" />
			<state id="x2" />
			<state id="x3" />
			<state id="x4" />
			<parents>LatentVar</parents>
			<probabilities>0.5440042918720019 0.238183008293434 0.1199770540872064 0.04772670543822802 0.05010894030912957 0.370743786331748 0.2257852412525447 0.09523603968352214 0.1370914712857833 0.1711434614464019 0.316042374558359 0.1445070013643323 0.1755733954037259 0.133756237612652 0.2301209910609308</probabilities>
		</cpt>
		<cpt id="dyskinesias">
			<state id="x0" />
			<state id="x1" />
			<state id="x2" />
			<state id="x3" />
			<state id="x4" />
			<parents>LatentVar</parents>
			<probabilities>0.8541993493323007 0.1095939078319437 0.02259414747854678 0.004566889922258794 0.009045705434949994 0.5882117524221401 0.2649095826787178 0.04272181225647359 0.05770952784734962 0.04644732479531882 0.5771706628198628 0.2371536237882426 0.1124561950952382 0.03672977701695115 0.03648974127970521</probabilities>
		</cpt>
		<cpt id="tremor_rest">
			<state id="x0" />
			<state id="x1" />
			<state id="x2" />
			<state id="x3" />
			<state id="x4" />
			<parents>LatentVar</parents>
			<probabilities>0.4145776689185084 0.2749169710088736 0.2470573721391846 0.05894712533535178 0.004500862598081558 0.4878404000121389 0.2221681240341937 0.2544155424510985 0.02395053117512549 0.01162540232744356 0.4680140166995256 0.2647911031569746 0.1680397717535936 0.08097610617813185 0.01817900221177433</probabilities>
		</cpt>
		<cpt id="tremor_post">
			<state id="x0" />
			<state id="x1" />
			<state id="x2" />
			<state id="x3" />
			<state id="x4" />
			<parents>LatentVar tremor_rest</parents>
			<probabilities>0.611324537660184 0.3352666901599055 0.03248545538214976 0.01060080984070341 0.01032250695705726 0.6413067848194669 0.2904838885080559 0.02471733553251881 0.0220352409765932 0.02145675016336522 0.6045033853905949 0.3031506477785702 0.05616880009715266 0.01832918121089823 0.01784798552278395 0.2791115619328985 0.5969401376180798 0.09321635535248202 0.01557035670550244 0.01516158839103721 0.4013108078690608 0.3824928363750141 0.1313255751335773 0.04299982718351124 0.04187095343883672 0.1243416875765821 0.6638483692192997 0.09301453766800133 0.0892594363351806 0.02953596920093631 0.2739518566721152 0.2728352804069232 0.4193089525353243 0.01717743464520207 0.01672647574043531 0.2776893332792715 0.1997036540520963 0.4466848866582198 0.03846598645509407 0.03745613955531833 0.06145001833934263 0.3630605802840476 0.3595648194769308 0.1729083565993522 0.04301622530032672 0.250761338314125 0.1866445708776884 0.2294725081645967 0.2777591016615006 0.05536248098208919 0.2047306562116476 0.1983049759513949 0.1648336398975961 0.2892544490270852 0.1428762789122762 0.2382097126200942 0.1719649855841935 0.3713279088210142 0.1462564983927173 0.07224089458198071 0.2379197379197379 0.230958230958231 0.1924651924651925 0.1715806715806716 0.1670761670761671 0.2379197379197379 0.230958230958231 0.1924651924651925 0.1715806715806716 0.1670761670761671 0.2039312039312039 0.3408213408213409 0.164970164970165 0.1470691470691471 0.1432081432081432</probabilities>
		</cpt>
		<cpt id="postural_stability">
			<state id="x0" />
			<state id="x1" />
			<state id="x2" />
			<state id="x3" />
			<state id="x4" />
			<parents>LatentVar</parents>
			<probabilities>0.5054991756026423 0.2692190124163206 0.1350430101934769 0.07669339379962804 0.01354540798793209 0.5214565585546188 0.215171927091794 0.1698538717935983 0.07020605280251159 0.0233115897574775 0.2850022483792038 0.2270054928180474 0.1596614514450093 0.2645490128369307 0.06378179452080876</probabilities>
		</cpt>
		<cpt id="gait">
			<state id="x0" />
			<state id="x1" />
			<state id="x2" />
			<state id="x3" />
			<state id="x4" />
			<parents>LatentVar postural_stability</parents>
			<probabilities>0.3835555372896571 0.5203459556787231 0.06964642445219631 0.01785095871456039 0.008601123864863043 0.3592239856837507 0.394060198831351 0.1639711065974559 0.06239279875430508 0.02035191013313723 0.3549817163571157 0.4414486748675667 0.1450388789942432 0.03046056823731459 0.0280701615437598 0.1111745429876322 0.6232093193143246 0.2023166839633804 0.04773028550173931 0.0155691682329234 0.2227537281424317 0.6366728345179588 0.05040058232853339 0.04692830574325114 0.04324454926782514 0.1078977075664509 0.4779379947867867 0.2763346376650455 0.1039287955592809 0.03390086442243605 0.03453466025321356 0.6145832928452393 0.2335905484266032 0.08844242253171054 0.02884907594323328 0.06188113163569952 0.7258137502965604 0.1045162363115372 0.05609549740199071 0.0516933843542124 0.05381921784088401 0.2152284145814657 0.5036427441735419 0.1823508865492237 0.04495873685488481 0.05494602799738468 0.3412714391161987 0.3716671255722996 0.1862153717309359 0.04590003558318111 0.1104387087192062 0.1378799308646647 0.1075208610007793 0.5519037732291837 0.09225672618616616 0.03549835069671498 0.2204883084801735 0.2694845548526343 0.4448746759372457 0.02965411003323141 0.151110703570886 0.1885812438872438 0.1471179410781606 0.1370678943897445 0.3761222170739651 0.1729265542826114 0.2158067161169174 0.1683573567101033 0.2984524342518449 0.1444569386385229 0.100655275042202 0.2088801541018054 0.1812613286329076 0.3417744426369538 0.1674287995861312</probabilities>
		</cpt>
		<cpt id="bradykinesia">
			<state id="x0" />
			<state id="x1" />
			<state id="x2" />
			<state id="x3" />
			<state id="x4" />
			<parents>LatentVar gait</parents>
			<probabilities>0.01808914098839677 0.4622063344355001 0.3698289251827557 0.130648907609418 0.01922669178392941 0.07553456670408577 0.2565397062033281 0.3692604042354545 0.1833177694615264 0.1153475533956053 0.05160912814037558 0.201678012524811 0.3481152679747546 0.3438492194375312 0.05474837192252778 0.02306374963286568 0.2236727690063035 0.466565848751721 0.2478381088739683 0.0388595237351416 0.02016692433823519 0.2104034161272782 0.5453805112528597 0.162718149664353 0.06133099861727397 0.023253916739095 0.1577373995789622 0.3243768822582797 0.4008744525956147 0.09375734882804861 0.02592945985332942 0.03059802440113081 0.4474740100286647 0.4171377512811035 0.07886075443577152 0.07304933908507191 0.08620177678195234 0.3097473533053871 0.3812850272330957 0.149716503594493 0.02787202354721082 0.06049110632224627 0.3470428454751411 0.3969789301724924 0.1676150944829095 0.07212179374326086 0.08510722619338568 0.3876373113264595 0.2357388593175242 0.2193948094193697 0.07246300164047594 0.08550986811589009 0.3135240771028628 0.4516323263396812 0.07687072680109003 0.03598493423314707 0.04246397348680372 0.2311186324895542 0.4384734609717703 0.2519589988187247 0.1262435065313281 0.1489734809432947 0.1784610153155758 0.2873845861382822 0.2589374110715192 0.1683046683046683 0.1986076986076986 0.2379197379197379 0.2166257166257166 0.1785421785421785 0.1442415504893951 0.170212048631038 0.2039035056796559 0.3286275276164413 0.1530153675834698</probabilities>
		</cpt>
		<cpt id="freezing">
			<state id="x0" />
			<state id="x1" />
			<state id="x2" />
			<state id="x3" />
			<state id="x4" />
			<parents>LatentVar gait tremor_post</parents>
			<probabilities>0.8387215443798324 0.0651976735405537 0.0329419824272962 0.03195067277091924 0.03118812688139849 0.7430500420513413 0.06739671030112156 0.06498968490772698 0.0630339767970778 0.06152958594273227 0.7448395144771269 0.06692734046511307 0.06453707830551768 0.0625949903009535 0.06110107645128873 0.7314580395176844 0.1773907777939616 0.03687358942287468 0.03630226075893578 0.01797533250654352 0.6207683197406042 0.2401113826396351 0.07001916759073996 0.03496784236975852 0.03413328765926227 0.5903984545628822 0.2118353067194078 0.06780556756991012 0.06576512223542064 0.0641955489123793 0.598987888600946 0.06133891903195657 0.2263057259419634 0.05736831936247724 0.05599914706265677 0.579401128830159 0.1103210151082043 0.1063809799241519 0.103179699398075 0.1007171767394097 0.3657565196283894 0.06846550625683399 0.3770393575362275 0.1262332771610377 0.06250533941751139 0.5275824770269232 0.1909720062320314 0.09650112167979374 0.09358901151046425 0.09135538355078729 0.5266142818733076 0.1913686836568351 0.09669156806469921 0.09378184833787641 0.09154361806728178 0.3705898246859222 0.08452839377711169 0.1582899070837754 0.309424438312949 0.07716743614024175 0.3005733005733006 0.1834561834561834 0.1769041769041769 0.1715806715806716 0.1674856674856675 0.3005733005733006 0.1834561834561834 0.1769041769041769 0.1715806715806716 0.1674856674856675 0.3005733005733006 0.1834561834561834 0.1769041769041769 0.1715806715806716 0.1674856674856675 0.8221567992801926 0.04665066278054517 0.0449802987220327 0.04362672491789746 0.04258551429933188 0.7062037238078205 0.07706132813601523 0.07430912504782775 0.07207297082185145 0.07035285218648507 0.3599267407588748 0.2587453398335635 0.1307410009397354 0.1268066652633082 0.123780253204518 0.8750993867992886 0.07117074620903613 0.0184216686828601 0.01786731291231107 0.01744088539650412 0.6683037691427095 0.05892145607916487 0.1638752985438545 0.05510734364995119 0.05379213258431988 0.6810711383333836 0.1984701239843397 0.04130013874560592 0.04005731033147952 0.03910128860519123 0.7525452405904933 0.1000349185019894 0.05054394556270691 0.04902294704042967 0.04785294830438074 0.3005974458036541 0.1834498615993725 0.1768980662170294 0.1715747445086915 0.1674798818712526 0.2528027865643495 0.3210956332295995 0.2663943110438834 0.1068163597797167 0.05289090938245078 0.4004896052767247 0.1572486278812463 0.1516326063829011 0.1470695872371866 0.1435595732219413 0.4197960709320028 0.1228989882848524 0.1185097387032505 0.114943473418199 0.2238517286616954 0.3644462169455607 0.06860917951551708 0.2531494945494425 0.2511586035835724 0.06263650540590733 0.2576342576740239 0.1572481572724287 0.2944892943803979 0.1470691470918474 0.1435591435813021 0.3005733005733006 0.1834561834561834 0.1769041769041769 0.1715806715806716 0.1674856674856675 0.2576342575944914 0.1572481572238858 0.294489294598191 0.1470691470464467 0.143559143536985 0.6504758632726158 0.09167846209242869 0.08840423130341336 0.08574391878733843 0.08369752454420386 0.4749006391220651 0.1377309799024092 0.132812016334466 0.1288153584355121 0.1257410062055477 0.400625695972956 0.1572129322038149 0.1515981846251072 0.1470362022174072 0.1435269849807149 0.7229531639607664 0.1578604281185073 0.04087097114929002 0.03963063768989346 0.03868479908154278 0.6275369390967165 0.07890021364330733 0.1477400513660591 0.07379197038593147 0.0720308255079856 0.5695321116287441 0.1740183437017161 0.08792555817443697 0.08527965017083104 0.08324433632427182 0.5275850265618044 0.1909762653079806 0.09649327135893083 0.09358953865600006 0.09135589811528405 0.5256047824976356 0.1244315333061443 0.1199875488672754 0.1163768124430287 0.1135993228859158 0.5867038988066315 0.1084055347395906 0.1045339084984381 0.1013882121778833 0.09896844577745648 0.3501994496936561 0.1375633767117218 0.1326503989720175 0.2539987811514122 0.1255879934711925 0.3007950321999903 0.1833980243409861 0.1768480949002366 0.1715262772296277 0.1674325713291592 0.3804155654132859 0.1101130788822403 0.2062162347816956 0.2027277788182329 0.1005273421045453 0.4004099522738159 0.1572695207150647 0.1516527521180981 0.1470891276330627 0.1435786472599586 0.3005733005733006 0.1834561834561834 0.1769041769041769 0.1715806715806716 0.1674856674856675 0.3006841280241063 0.1834271139608902 0.1768761456051441 0.1715534838161004 0.1674591285937591 0.3005733005733006 0.1834561834561834 0.1769041769041769 0.1715806715806716 0.1674856674856675 0.3005733005733006 0.1834561834561834 0.1769041769041769 0.1715806715806716 0.1674856674856675 0.3005733005733006 0.1834561834561834 0.1769041769041769 0.1715806715806716 0.1674856674856675 0.533712578865036 0.1223048973468758 0.1179368652987731 0.1143878392596896 0.1116578192296254 0.30057331825582 0.1834561788181456 0.1769041724317832 0.1715806672428638 0.1674856632513874 0.4754337051660016 0.1375911593007209 0.1326771893256951 0.1286845887209867 0.1256133574865956 0.2576342576347166 0.300105300104055 0.1516321516324212 0.1470691470694085 0.1435591435593987 0.4004914004906966 0.1572481572496384 0.1516321516318851 0.1470691470688886 0.1435591435588912 0.5337155337155246 0.1223041223041368 0.1179361179361161 0.1143871143871126 0.1116571116571099 0.3005733005733082 0.1834561834561815 0.176904176904175 0.1715806715806697 0.1674856674856657 0.3005733005733006 0.1834561834561834 0.1769041769041769 0.1715806715806716 0.1674856674856675 0.4004914004913949 0.1572481572481587 0.151632151632153 0.1470691470691484 0.1435591435591449 0.3005733005733006 0.1834561834561834 0.1769041769041769 0.1715806715806716 0.1674856674856675 0.3005733005733006 0.1834561834561834 0.1769041769041769 0.1715806715806716 0.1674856674856675 0.3005733005733006 0.1834561834561834 0.1769041769041769 0.1715806715806716 0.1674856674856675 0.3005733005733006 0.1834561834561834 0.1769041769041769 0.1715806715806716 0.1674856674856675 0.3005733005733006 0.1834561834561834 0.1769041769041769 0.1715806715806716 0.1674856674856675 0.3005733005733006 0.1834561834561834 0.1769041769041769 0.1715806715806716 0.1674856674856675 0.3005733005733006 0.1834561834561834 0.1769041769041769 0.1715806715806716 0.1674856674856675 0.3005733005733006 0.1834561834561834 0.1769041769041769 0.1715806715806716 0.1674856674856675 0.3005733005733006 0.1834561834561834 0.1769041769041769 0.1715806715806716 0.1674856674856675 0.3005733005733006 0.1834561834561834 0.1769041769041769 0.1715806715806716 0.1674856674856675 0.3005733005733006 0.1834561834561834 0.1769041769041769 0.1715806715806716 0.1674856674856675 0.3005733005733006 0.1834561834561834 0.1769041769041769 0.1715806715806716 0.1674856674856675 0.3005733005733006 0.1834561834561834 0.1769041769041769 0.1715806715806716 0.1674856674856675 0.3005733005733006 0.1834561834561834 0.1769041769041769 0.1715806715806716 0.1674856674856675 0.3005733005733006 0.1834561834561834 0.1769041769041769 0.1715806715806716 0.1674856674856675 0.3005733005733006 0.1834561834561834 0.1769041769041769 0.1715806715806716 0.1674856674856675 0.3005733005733006 0.1834561834561834 0.1769041769041769 0.1715806715806716 0.1674856674856675 0.3005733005733006 0.1834561834561834 0.1769041769041769 0.1715806715806716 0.1674856674856675</probabilities>
		</cpt>
		<cpt id="tremor_kin">
			<state id="x0" />
			<state id="x1" />
			<state id="x2" />
			<state id="x3" />
			<state id="x4" />
			<parents>LatentVar tremor_post freezing</parents>
			<probabilities>0.8136401511077821 0.1485554443072628 0.01360486378896511 0.01215879366822912 0.01204074712776087 0.6852837826515867 0.2129633823626621 0.05232314025831444 0.02483540759476084 0.02459428713267579 0.6732722653387494 0.2251484674695451 0.03655584870463072 0.03267030294716437 0.03235311553991035 0.2768119577659647 0.5839050383579266 0.1161823402594826 0.01160667489030473 0.01149398872632119 0.3292400522160247 0.4427278070866713 0.1531958392314029 0.03760067829750154 0.0372356231683996 0.2855446920908698 0.5418123015472486 0.105175145756217 0.03389848606040711 0.03356937454525753 0.2718618389943634 0.1813915890056906 0.4319772643959224 0.08611209983019152 0.02865720777383209 0.1411415278122597 0.3476683408377402 0.3979476465140015 0.05689744360052613 0.05634504123547248 0.1378167633745735 0.4111236735001196 0.3405272564126541 0.05553574434830844 0.05499656236434428 0.1678962318489464 0.1490590936415109 0.3480712221598711 0.2235886351230533 0.1113848172266181 0.2158652111874572 0.1916461874932877 0.1618111731098786 0.2874692881045268 0.1432081401048496 0.1259207790457346 0.4451248351957915 0.2610600136974943 0.08435668449893115 0.08353768756204832 0.2518427518427518 0.2235872235872236 0.1887796887796888 0.1687141687141687 0.1670761670761671 0.2518427518427518 0.2235872235872236 0.1887796887796888 0.1687141687141687 0.1670761670761671 0.2518427518427518 0.2235872235872236 0.1887796887796888 0.1687141687141687 0.1670761670761671 0.673593670977811 0.07977522962202221 0.1268221464879723 0.06019669341441969 0.05961225949777484 0.5003776967258815 0.2569222353087612 0.0873417122520256 0.0780581006754788 0.0773002550378528 0.452414735203012 0.1644710412072966 0.1378732836459888 0.1232186186058604 0.1220223213378423 0.2511134586776875 0.4341478209484332 0.113266627706759 0.1012274416815287 0.1002446509855915 0.251842786884159 0.2235872137738794 0.1887796797007372 0.168714160600225 0.1670761590409995 0.5319379812372268 0.2713469691168298 0.07079284768679149 0.06326822830142752 0.06265397365772435 0.4511056910179491 0.2341522648012292 0.1132678238621068 0.1012285106967202 0.1002457096219948 0.2518422126490892 0.2235867509389078 0.1887814219330329 0.1687138062991899 0.1670758081797803 0.2158655862047846 0.1916466427166967 0.3046669917713963 0.1446123915543103 0.1432083877528121 0.3587223587212181 0.1916461916465325 0.1618111618114496 0.1446121446124018 0.1432081432083979 0.2518427518442859 0.2235872235867652 0.1887796887793017 0.1687141687138228 0.1670761670758245 0.2518427518427703 0.2235872235872181 0.1887796887796841 0.1687141687141645 0.167076167076163 0.2518427518427518 0.2235872235872236 0.1887796887796888 0.1687141687141687 0.1670761670761671 0.2518427518427518 0.2235872235872236 0.1887796887796888 0.1687141687141687 0.1670761670761671 0.2518427518427518 0.2235872235872236 0.1887796887796888 0.1687141687141687 0.1670761670761671 0.5510948928340801 0.134155549267976 0.1132705278617893 0.1012309272864581 0.1002481027496964 0.3587224540378546 0.1916461631611009 0.1618111377605632 0.1446121231179003 0.1432081219225809 0.6259288141825958 0.1117913888649713 0.09438796752152341 0.0843554069823593 0.08353642244855 0.2158652155915255 0.1916461918994533 0.3046683050536538 0.1446121444287943 0.143208143026573 0.1888820639455694 0.2926904174575236 0.2665847666694811 0.1265356265781701 0.1253071253492558 0.1793611794404236 0.3101088101870131 0.3666198663988379 0.07230607233801811 0.07160407163570727 0.2518775492128525 0.2235768243731705 0.1887709084909004 0.1687063216881799 0.1670683962348967 0.3586967910957273 0.1916538325461045 0.161817613193689 0.1446179102728847 0.1432138528915946 0.3587223587257637 0.191646191645174 0.1618111618103026 0.1446121446113767 0.1432081432073828 0.2518427518427518 0.2235872235872236 0.1887796887796888 0.1687141687141687 0.1670761670761671 0.2518427518427518 0.2235872235872236 0.1887796887796888 0.1687141687141687 0.1670761670761671 0.2518427518427518 0.2235872235872236 0.1887796887796888 0.1687141687141687 0.1670761670761671 0.2518427518427518 0.2235872235872236 0.1887796887796888 0.1687141687141687 0.1670761670761671 0.2518427518427518 0.2235872235872236 0.1887796887796888 0.1687141687141687 0.1670761670761671 0.2518427518427518 0.2235872235872236 0.1887796887796888 0.1687141687141687 0.1670761670761671 0.3587223587223561 0.1916461916461925 0.1618111618111625 0.1446121446121452 0.1432081432081438 0.2518427518427545 0.223587223587224 0.1887796887796877 0.1687141687141677 0.1670761670761661 0.3511056511056517 0.3341523341523333 0.1132678132678133 0.1012285012285013 0.1002457002457003 0.2518427518427417 0.2235872235872584 0.1887796887796799 0.1687141687141608 0.1670761670761592 0.2518427518427518 0.2235872235872236 0.1887796887796888 0.1687141687141687 0.1670761670761671 0.3511056511056599 0.3341523341523164 0.1132678132678165 0.1012285012285041 0.1002457002457031 0.2157748661388136 0.1919845256806723 0.3045407866620961 0.1445516176409613 0.1431482038774568 0.2518427518427518 0.2235872235872236 0.1887796887796888 0.1687141687141687 0.1670761670761671 0.2159556412861853 0.3342245595285886 0.1618789441369789 0.1446727222925339 0.1432681327557132 0.2518427518427518 0.2235872235872236 0.1887796887796888 0.1687141687141687 0.1670761670761671 0.2518427518427518 0.2235872235872236 0.1887796887796888 0.1687141687141687 0.1670761670761671 0.2518427518427518 0.2235872235872236 0.1887796887796888 0.1687141687141687 0.1670761670761671 0.2518427518427518 0.2235872235872236 0.1887796887796888 0.1687141687141687 0.1670761670761671 0.2518427518427518 0.2235872235872236 0.1887796887796888 0.1687141687141687 0.1670761670761671 0.2518427518427518 0.2235872235872236 0.1887796887796888 0.1687141687141687 0.1670761670761671 0.2518427518427518 0.2235872235872236 0.1887796887796888 0.1687141687141687 0.1670761670761671 0.2518427518427518 0.2235872235872236 0.1887796887796888 0.1687141687141687 0.1670761670761671 0.2518427518427518 0.2235872235872236 0.1887796887796888 0.1687141687141687 0.1670761670761671 0.2518427518427518 0.2235872235872236 0.1887796887796888 0.1687141687141687 0.1670761670761671 0.2158652158652159 0.3345033345033345 0.1618111618111618 0.1446121446121446 0.1432081432081432 0.2518427518427518 0.2235872235872236 0.1887796887796888 0.1687141687141687 0.1670761670761671 0.2518427518427518 0.2235872235872236 0.1887796887796888 0.1687141687141687 0.1670761670761671 0.2518427518427518 0.2235872235872236 0.1887796887796888 0.1687141687141687 0.1670761670761671 0.2518427518427518 0.2235872235872236 0.1887796887796888 0.1687141687141687 0.1670761670761671 0.2518427518427518 0.2235872235872236 0.1887796887796888 0.1687141687141687 0.1670761670761671 0.2518427518427518 0.2235872235872236 0.1887796887796888 0.1687141687141687 0.1670761670761671 0.2518427518427518 0.2235872235872236 0.1887796887796888 0.1687141687141687 0.1670761670761671 0.2518427518427518 0.2235872235872236 0.1887796887796888 0.1687141687141687 0.1670761670761671 0.2518427518427518 0.2235872235872236 0.1887796887796888 0.1687141687141687 0.1670761670761671 0.2518427518427518 0.2235872235872236 0.1887796887796888 0.1687141687141687 0.1670761670761671</probabilities>
		</cpt>
		<cpt id="rigidity">
			<state id="x0" />
			<state id="x1" />
			<state id="x2" />
			<state id="x3" />
			<state id="x4" />
			<parents>LatentVar</parents>
			<probabilities>0.1175444162387968 0.4997962518158401 0.2927770909889099 0.08531535103419449 0.004566889922258794 0.1606296446063696 0.3029209601205915 0.3973323453404541 0.1273211038057167 0.01179594612686815 0.09270760311603227 0.3856252599546857 0.3014269369132966 0.1475241911688878 0.07271600884709731</probabilities>
		</cpt>
		<cpt id="speech">
			<state id="x0" />
			<state id="x1" />
			<state id="x2" />
			<state id="x3" />
			<state id="x4" />
			<parents>LatentVar bradykinesia</parents>
			<probabilities>0.2923832923832925 0.2994471744471745 0.1520270270270271 0.1308353808353808 0.1253071253071253 0.3341523341523342 0.1993681993681994 0.1737451737451738 0.1495261495261495 0.1432081432081432 0.2231777231777232 0.2325962325962326 0.2027027027027027 0.1744471744471744 0.1670761670761671 0.6023281308229399 0.3071019068318718 0.05560695289469484 0.01785880338838161 0.01710420606211197 0.2721151076850503 0.2883448420320739 0.3418613022072663 0.04989346124725375 0.04778528682835571 0.3248552029064566 0.3982949427166966 0.143899646952976 0.06790981818053825 0.06504038924333241 0.4052359365819125 0.4585213466660873 0.1166669208389775 0.009999147555603674 0.009576648357419199 0.3524944962422984 0.4259162583924528 0.1771156674525961 0.02271671965322556 0.0217568582594273 0.3318700805067769 0.3619049604829476 0.205618516507285 0.07569902226783948 0.02490742023515117 0.2842998043006514 0.3672583545880179 0.2984400758393271 0.03356339405143389 0.01643837122056989 0.1299478975790318 0.2761392826162181 0.5132102911614631 0.04122215492024884 0.03948037372303816 0.08323405564021333 0.4138408645184074 0.2929710782123451 0.1909052923530889 0.01904870927594523 0.1559101927770709 0.2264667352424387 0.2810310096156809 0.2697734052942027 0.0668186570706067 0.212693751644753 0.3995532743644026 0.110603954974856 0.1859845724954785 0.09116444652050988 0.1669560348259021 0.219766069141126 0.4107862624541943 0.1523718132175733 0.05011982036120435</probabilities>
		</cpt>
		<equation id="smell">
			<parents>LatentVar</parents>
			<definition lower="0" upper="12">smell=Choose(LatentVar,Normal(3.13119,17.7936),Normal(5.81407,22.3116),Normal(4.97203,25.2517))</definition>
			<discretization>
				<interval upper="1.2" />
				<interval upper="2.4" />
				<interval upper="3.6" />
				<interval upper="4.8" />
				<interval upper="6" />
				<interval upper="7.2" />
				<interval upper="8.4" />
				<interval upper="9.6" />
				<interval upper="10.8" />
				<interval upper="12" />
			</discretization>
		</equation>
		<equation id="gastrointestinal">
			<parents>LatentVar tremor_post</parents>
			<definition lower="0" upper="10">gastrointestinal=If(And(LatentVar=&quot;x0&quot;,tremor_post=&quot;x0&quot;),Normal(0.672494,1.71559),If(And(LatentVar=&quot;x1&quot;,tremor_post=&quot;x0&quot;),Normal(1.63935,2.2589),If(And(LatentVar=&quot;x2&quot;,tremor_post=&quot;x0&quot;),Normal(1.4354,2.24567),If(And(LatentVar=&quot;x0&quot;,tremor_post=&quot;x1&quot;),Normal(1.02967,2.26552),If(And(LatentVar=&quot;x1&quot;,tremor_post=&quot;x1&quot;),Normal(1.06641,1.72058),If(And(LatentVar=&quot;x2&quot;,tremor_post=&quot;x1&quot;),Normal(2.81821,7.60439),If(And(LatentVar=&quot;x0&quot;,tremor_post=&quot;x2&quot;),Normal(1.00622,1.59894),If(And(LatentVar=&quot;x1&quot;,tremor_post=&quot;x2&quot;),Normal(0.259443,0.372083),If(And(LatentVar=&quot;x2&quot;,tremor_post=&quot;x2&quot;),Normal(1.8491,2.62587),If(And(LatentVar=&quot;x0&quot;,tremor_post=&quot;x3&quot;),Normal(0.852071,0.840482),If(And(LatentVar=&quot;x1&quot;,tremor_post=&quot;x3&quot;),Normal(0.630182,1.90801),If(And(LatentVar=&quot;x2&quot;,tremor_post=&quot;x3&quot;),Normal(1.32291,1.98787),If(And(LatentVar=&quot;x0&quot;,tremor_post=&quot;x4&quot;),Normal(1.26036,3.02176),If(And(LatentVar=&quot;x1&quot;,tremor_post=&quot;x4&quot;),Normal(1.26036,3.02176),Normal(1.26036,3.02176)))))))))))))))</definition>
			<discretization>
				<interval upper="1" />
				<interval upper="2" />
				<interval upper="3" />
				<interval upper="4" />
				<interval upper="5" />
				<interval upper="6" />
				<interval upper="7" />
				<interval upper="8" />
				<interval upper="9" />
				<interval upper="10" />
			</discretization>
		</equation>
		<equation id="weight_change">
			<parents>LatentVar</parents>
			<definition lower="0" upper="12">weight_change=Choose(LatentVar,-1.1768e-06*LatentVar+Normal(3.60754e-06,0.00920581),0.154222*LatentVar+Normal(0.408011,1.80984),0.379153*LatentVar+Normal(1.23638,14.4088))</definition>
			<discretization>
				<interval upper="1.2" />
				<interval upper="2.4" />
				<interval upper="3.6" />
				<interval upper="4.8" />
				<interval upper="6" />
				<interval upper="7.2" />
				<interval upper="8.4" />
				<interval upper="9.6" />
				<interval upper="10.8" />
				<interval upper="12" />
			</discretization>
		</equation>
		<equation id="sweating">
			<parents>LatentVar</parents>
			<definition lower="0" upper="12">sweating=Choose(LatentVar,-4.49565e-61*LatentVar+Normal(3.53338e-21,0.00916315),0.248184*LatentVar+Normal(1.68794,10.7877),-0.112796*LatentVar+Normal(1.80098,10.1595))</definition>
			<discretization>
				<interval upper="1.2" />
				<interval upper="2.4" />
				<interval upper="3.6" />
				<interval upper="4.8" />
				<interval upper="6" />
				<interval upper="7.2" />
				<interval upper="8.4" />
				<interval upper="9.6" />
				<interval upper="10.8" />
				<interval upper="12" />
			</discretization>
		</equation>
		<equation id="hallucinations">
			<parents>LatentVar speech</parents>
			<definition lower="0" upper="7">hallucinations=If(And(LatentVar=&quot;x0&quot;,speech=&quot;x0&quot;),Normal(0.0141659,0.0134708),If(And(LatentVar=&quot;x1&quot;,speech=&quot;x0&quot;),Normal(0.212028,0.197191),If(And(LatentVar=&quot;x2&quot;,speech=&quot;x0&quot;),Normal(0.148844,0.179351),If(And(LatentVar=&quot;x0&quot;,speech=&quot;x1&quot;),Normal(0.141269,0.138405),If(And(LatentVar=&quot;x1&quot;,speech=&quot;x1&quot;),Normal(0.130408,0.0979761),If(And(LatentVar=&quot;x2&quot;,speech=&quot;x1&quot;),Normal(0.914303,2.21509),If(And(LatentVar=&quot;x0&quot;,speech=&quot;x2&quot;),Normal(0.127541,0.116224),If(And(LatentVar=&quot;x1&quot;,speech=&quot;x2&quot;),Normal(0.257118,0.259808),If(And(LatentVar=&quot;x2&quot;,speech=&quot;x2&quot;),Normal(1.08229,2.19835),If(And(LatentVar=&quot;x0&quot;,speech=&quot;x3&quot;),Normal(2.13545,4.71824),If(And(LatentVar=&quot;x1&quot;,speech=&quot;x3&quot;),Normal(2.83755,6.63698),If(And(LatentVar=&quot;x2&quot;,speech=&quot;x3&quot;),Normal(1.28715,1.66056),If(And(LatentVar=&quot;x0&quot;,speech=&quot;x4&quot;),Normal(0.345771,0.83539),If(And(LatentVar=&quot;x1&quot;,speech=&quot;x4&quot;),Normal(0.345771,0.83539),Normal(0.345771,0.83539)))))))))))))))</definition>
			<discretization>
				<interval upper="0.7" />
				<interval upper="1.4" />
				<interval upper="2.1" />
				<interval upper="2.8" />
				<interval upper="3.5" />
				<interval upper="4.2" />
				<interval upper="4.9" />
				<interval upper="5.600000000000001" />
				<interval upper="6.300000000000001" />
				<interval upper="7" />
			</discretization>
		</equation>
		<equation id="sleep_fatigue">
			<parents>LatentVar</parents>
			<definition lower="0" upper="12">sleep_fatigue=Choose(LatentVar,0.18264*LatentVar+Normal(1.05781,1.88736),0.526444*LatentVar+Normal(1.5353,3.37182),0.373413*LatentVar+Normal(2.35008,6.37481))</definition>
			<discretization>
				<interval upper="1.2" />
				<interval upper="2.4" />
				<interval upper="3.6" />
				<interval upper="4.8" />
				<interval upper="6" />
				<interval upper="7.2" />
				<interval upper="8.4" />
				<interval upper="9.6" />
				<interval upper="10.8" />
				<interval upper="12" />
			</discretization>
		</equation>
		<equation id="mood_cognition">
			<parents>LatentVar</parents>
			<definition lower="0" upper="10">mood_cognition=Choose(LatentVar,0.114931*LatentVar+Normal(0.272061,0.401019),0.932118*LatentVar+Normal(-0.0311832,4.24175),0.463029*LatentVar+Normal(0.268108,2.41428))</definition>
			<discretization>
				<interval upper="1" />
				<interval upper="2" />
				<interval upper="3" />
				<interval upper="4" />
				<interval upper="5" />
				<interval upper="6" />
				<interval upper="7" />
				<interval upper="8" />
				<interval upper="9" />
				<interval upper="10" />
			</discretization>
		</equation>
		<equation id="sexual">
			<parents>LatentVar mood_cognition</parents>
			<definition lower="0" upper="12">sexual=Choose(LatentVar,0.121075*LatentVar+0.222742*mood_cognition+Normal(0.231,1.14958),0.906278*LatentVar+-0.112313*mood_cognition+Normal(1.02546,9.74127),0.509288*LatentVar+0.0570297*mood_cognition+Normal(1.72488,14.2696))</definition>
			<discretization>
				<interval upper="1.2" />
				<interval upper="2.4" />
				<interval upper="3.6" />
				<interval upper="4.8" />
				<interval upper="6" />
				<interval upper="7.2" />
				<interval upper="8.4" />
				<interval upper="9.6" />
				<interval upper="10.8" />
				<interval upper="12" />
			</discretization>
		</equation>
		<equation id="attention_memory">
			<parents>LatentVar</parents>
			<definition lower="0" upper="10">attention_memory=Choose(LatentVar,0.472699*LatentVar+Normal(0.589346,1.26517),0.635425*LatentVar+Normal(0.708181,2.95242),0.516889*LatentVar+Normal(1.31124,4.46575))</definition>
			<discretization>
				<interval upper="1" />
				<interval upper="2" />
				<interval upper="3" />
				<interval upper="4" />
				<interval upper="5" />
				<interval upper="6" />
				<interval upper="7" />
				<interval upper="8" />
				<interval upper="9" />
				<interval upper="10" />
			</discretization>
		</equation>
		<equation id="urinary">
			<parents>LatentVar attention_memory</parents>
			<definition lower="0" upper="12">urinary=Choose(LatentVar,0.385632*LatentVar+0.25169*attention_memory+Normal(0.889243,2.75515),0.116614*LatentVar+0.649355*attention_memory+Normal(1.26546,8.51007),0.347897*LatentVar+0.354453*attention_memory+Normal(1.75505,8.89205))</definition>
			<discretization>
				<interval upper="1.2" />
				<interval upper="2.4" />
				<interval upper="3.6" />
				<interval upper="4.8" />
				<interval upper="6" />
				<interval upper="7.2" />
				<interval upper="8.4" />
				<interval upper="9.6" />
				<interval upper="10.8" />
				<interval upper="12" />
			</discretization>
		</equation>
		<equation id="cardiovascular">
			<parents>LatentVar</parents>
			<definition lower="0" upper="9">cardiovascular=Choose(LatentVar,Normal(0.415534,0.69293),Normal(0.205497,0.192017),Normal(1.38134,2.80474))</definition>
			<discretization>
				<interval upper="0.9" />
				<interval upper="1.8" />
				<interval upper="2.7" />
				<interval upper="3.6" />
				<interval upper="4.5" />
				<interval upper="5.4" />
				<interval upper="6.300000000000001" />
				<interval upper="7.200000000000001" />
				<interval upper="8.100000000000001" />
				<interval upper="9" />
			</discretization>
		</equation>
	</nodes>
	<extensions>
		<genie version="1.0" app="GeNIe This network was created in GeNIe Academic, which can be used for academic teaching and research purposes only" name="DAG">
			<node id="cardiovascular">
				<name>cardiovascular</name>
				<interior color="e5f6f7" />
				<outline color="000080" />
				<font color="000080" name="Arial" size="10" bold="true" />
				<position>90 385 90 385</position>
				<barchart active="true" width="160" height="220" />
			</node>
			<node id="sleep_fatigue">
				<name>sleep_fatigue</name>
				<interior color="e5f6f7" />
				<outline color="000080" />
				<font color="000080" name="Arial" size="10" bold="true" />
				<position>283 385 283 385</position>
				<barchart active="true" width="160" height="220" />
			</node>
			<node id="mood_cognition">
				<name>mood_cognition</name>
				<interior color="e5f6f7" />
				<outline color="000080" />
				<font color="000080" name="Arial" size="10" bold="true" />
				<position>476 385 476 385</position>
				<barchart active="true" width="160" height="220" />
			</node>
			<node id="hallucinations">
				<name>hallucinations</name>
				<interior color="e5f6f7" />
				<outline color="000080" />
				<font color="000080" name="Arial" size="10" bold="true" />
				<position>242 1429 242 1429</position>
				<barchart active="true" width="160" height="220" />
			</node>
			<node id="attention_memory">
				<name>attention_memory</name>
				<interior color="e5f6f7" />
				<outline color="000080" />
				<font color="000080" name="Arial" size="10" bold="true" />
				<position>669 385 669 385</position>
				<barchart active="true" width="160" height="220" />
			</node>
			<node id="gastrointestinal">
				<name>gastrointestinal</name>
				<interior color="e5f6f7" />
				<outline color="000080" />
				<font color="000080" name="Arial" size="10" bold="true" />
				<position>2113 893 2113 893</position>
				<barchart active="true" width="160" height="220" />
			</node>
			<node id="urinary">
				<name>urinary</name>
				<interior color="e5f6f7" />
				<outline color="000080" />
				<font color="000080" name="Arial" size="10" bold="true" />
				<position>454 749 454 749</position>
				<barchart active="true" width="160" height="220" />
			</node>
			<node id="sexual">
				<name>sexual</name>
				<interior color="e5f6f7" />
				<outline color="000080" />
				<font color="000080" name="Arial" size="10" bold="true" />
				<position>217 756 217 756</position>
				<barchart active="true" width="160" height="220" />
			</node>
			<node id="smell">
				<name>smell</name>
				<interior color="e5f6f7" />
				<outline color="000080" />
				<font color="000080" name="Arial" size="10" bold="true" />
				<position>862 385 862 385</position>
				<barchart active="true" width="160" height="220" />
			</node>
			<node id="weight_change">
				<name>weight_change</name>
				<interior color="e5f6f7" />
				<outline color="000080" />
				<font color="000080" name="Arial" size="10" bold="true" />
				<position>1055 385 1055 385</position>
				<barchart active="true" width="160" height="220" />
			</node>
			<node id="sweating">
				<name>sweating</name>
				<interior color="e5f6f7" />
				<outline color="000080" />
				<font color="000080" name="Arial" size="10" bold="true" />
				<position>1248 385 1248 385</position>
				<barchart active="true" width="160" height="220" />
			</node>
			<node id="speech">
				<name>speech</name>
				<interior color="e5f6f7" />
				<outline color="000080" />
				<font color="000080" name="Arial" size="10" bold="true" />
				<position>540 1212 540 1212</position>
				<barchart active="true" width="160" height="120" />
			</node>
			<node id="rigidity">
				<name>rigidity</name>
				<interior color="e5f6f7" />
				<outline color="000080" />
				<font color="000080" name="Arial" size="10" bold="true" />
				<position>1441 385 1441 385</position>
				<barchart active="true" width="160" height="120" />
			</node>
			<node id="gait">
				<name>gait</name>
				<interior color="e5f6f7" />
				<outline color="000080" />
				<font color="000080" name="Arial" size="10" bold="true" />
				<position>1026 754 1026 754</position>
				<barchart active="true" width="160" height="120" />
			</node>
			<node id="freezing">
				<name>freezing</name>
				<interior color="e5f6f7" />
				<outline color="000080" />
				<font color="000080" name="Arial" size="10" bold="true" />
				<position>1188 1179 1188 1179</position>
				<barchart active="true" width="160" height="120" />
			</node>
			<node id="postural_stability">
				<name>postural_stability</name>
				<interior color="e5f6f7" />
				<outline color="000080" />
				<font color="000080" name="Arial" size="10" bold="true" />
				<position>1634 385 1634 385</position>
				<barchart active="true" width="160" height="120" />
			</node>
			<node id="tremor_post">
				<name>tremor_post</name>
				<interior color="e5f6f7" />
				<outline color="000080" />
				<font color="000080" name="Arial" size="10" bold="true" />
				<position>1568 686 1568 686</position>
				<barchart active="true" width="160" height="120" />
			</node>
			<node id="tremor_kin">
				<name>tremor_kin</name>
				<interior color="e5f6f7" />
				<outline color="000080" />
				<font color="000080" name="Arial" size="10" bold="true" />
				<position>1582 1070 1582 1070</position>
				<barchart active="true" width="160" height="120" />
			</node>
			<node id="tremor_rest">
				<name>tremor_rest</name>
				<interior color="e5f6f7" />
				<outline color="000080" />
				<font color="000080" name="Arial" size="10" bold="true" />
				<position>1827 385 1827 385</position>
				<barchart active="true" width="160" height="120" />
			</node>
			<node id="bradykinesia">
				<name>bradykinesia</name>
				<interior color="e5f6f7" />
				<outline color="000080" />
				<font color="000080" name="Arial" size="10" bold="true" />
				<position>810 1019 810 1019</position>
				<barchart active="true" width="160" height="120" />
			</node>
			<node id="dyskinesias">
				<name>dyskinesias</name>
				<interior color="e5f6f7" />
				<outline color="000080" />
				<font color="000080" name="Arial" size="10" bold="true" />
				<position>2020 385 2020 385</position>
				<barchart active="true" width="160" height="120" />
			</node>
			<node id="motor_fluctuations">
				<name>motor_fluctuations</name>
				<interior color="e5f6f7" />
				<outline color="000080" />
				<font color="000080" name="Arial" size="10" bold="true" />
				<position>2213 385 2213 385</position>
				<barchart active="true" width="160" height="120" />
			</node>
			<node id="LatentVar">
				<name>LatentVar</name>
				<interior color="e5f6f7" />
				<outline color="000080" />
				<font color="000080" name="Arial" size="10" bold="true" />
				<position>1064 84 1064 84</position>
				<barchart active="true" width="160" height="110" />
			</node>
		</genie>
	</extensions>
</smile>
